digraph Tree {
node [shape=box, style="filled, rounded", color="black", fontname="helvetica"] ;
edge [fontname="helvetica"] ;
0 [label="PropertySizeDescription <= 1.5\ngini = 0.75\nsamples = 6296\nvalue = [1556, 1521, 1622, 1597]\nclass = 3", fillcolor="#fefeff"] ;
1 [label="VATExclusive <= 0.5\ngini = 0.039\nsamples = 1462\nvalue = [1433, 8, 16, 5]\nclass = 1", fillcolor="#e6843d"] ;
0 -> 1 [labeldistance=2.5, labelangle=45, headlabel="True"] ;
2 [label="gini = 0.0\nsamples = 1404\nvalue = [1404, 0, 0, 0]\nclass = 1", fillcolor="#e58139"] ;
1 -> 2 ;
3 [label="YearMonth <= 201811.0\ngini = 0.647\nsamples = 58\nvalue = [29, 8, 16, 5]\nclass = 1", fillcolor="#f7d8c2"] ;
1 -> 3 ;
4 [label="YearMonth <= 201603.5\ngini = 0.701\nsamples = 37\nvalue = [8, 8, 16, 5]\nclass = 3", fillcolor="#c8e4f8"] ;
3 -> 4 ;
5 [label="YearMonth <= 201554.0\ngini = 0.665\nsamples = 23\nvalue = [8, 7, 8, 0]\nclass = 1", fillcolor="#ffffff"] ;
4 -> 5 ;
6 [label="YearMonth <= 201205.5\ngini = 0.653\nsamples = 21\nvalue = [8, 5, 8, 0]\nclass = 1", fillcolor="#ffffff"] ;
5 -> 6 ;
7 [label="County_Donegal <= 0.5\ngini = 0.628\nsamples = 11\nvalue = [2, 4, 5, 0]\nclass = 3", fillcolor="#e3f1fb"] ;
6 -> 7 ;
8 [label="YearMonth <= 201008.5\ngini = 0.58\nsamples = 10\nvalue = [1, 4, 5, 0]\nclass = 3", fillcolor="#deeffb"] ;
7 -> 8 ;
9 [label="gini = 0.0\nsamples = 2\nvalue = [0, 0, 2, 0]\nclass = 3", fillcolor="#399de5"] ;
8 -> 9 ;
10 [label="YearMonth <= 201057.5\ngini = 0.594\nsamples = 8\nvalue = [1, 4, 3, 0]\nclass = 2", fillcolor="#dafad7"] ;
8 -> 10 ;
11 [label="gini = 0.0\nsamples = 2\nvalue = [0, 2, 0, 0]\nclass = 2", fillcolor="#47e539"] ;
10 -> 11 ;
12 [label="YearMonth <= 201110.0\ngini = 0.611\nsamples = 6\nvalue = [1, 2, 3, 0]\nclass = 3", fillcolor="#cee6f8"] ;
10 -> 12 ;
13 [label="gini = 0.0\nsamples = 2\nvalue = [0, 0, 2, 0]\nclass = 3", fillcolor="#399de5"] ;
12 -> 13 ;
14 [label="gini = 0.625\nsamples = 4\nvalue = [1, 2, 1, 0]\nclass = 2", fillcolor="#c2f6bd"] ;
12 -> 14 ;
15 [label="gini = 0.0\nsamples = 1\nvalue = [1, 0, 0, 0]\nclass = 1", fillcolor="#e58139"] ;
7 -> 15 ;
16 [label="County_Kildare <= 0.5\ngini = 0.54\nsamples = 10\nvalue = [6, 1, 3, 0]\nclass = 1", fillcolor="#f4c9aa"] ;
6 -> 16 ;
17 [label="County_Dublin <= 0.5\ngini = 0.375\nsamples = 8\nvalue = [6, 0, 2, 0]\nclass = 1", fillcolor="#eeab7b"] ;
16 -> 17 ;
18 [label="gini = 0.0\nsamples = 5\nvalue = [5, 0, 0, 0]\nclass = 1", fillcolor="#e58139"] ;
17 -> 18 ;
19 [label="YearMonth <= 201353.5\ngini = 0.444\nsamples = 3\nvalue = [1, 0, 2, 0]\nclass = 3", fillcolor="#9ccef2"] ;
17 -> 19 ;
20 [label="gini = 0.0\nsamples = 1\nvalue = [1, 0, 0, 0]\nclass = 1", fillcolor="#e58139"] ;
19 -> 20 ;
21 [label="gini = 0.0\nsamples = 2\nvalue = [0, 0, 2, 0]\nclass = 3", fillcolor="#399de5"] ;
19 -> 21 ;
22 [label="YearMonth <= 201405.0\ngini = 0.5\nsamples = 2\nvalue = [0, 1, 1, 0]\nclass = 2", fillcolor="#ffffff"] ;
16 -> 22 ;
23 [label="gini = 0.0\nsamples = 1\nvalue = [0, 0, 1, 0]\nclass = 3", fillcolor="#399de5"] ;
22 -> 23 ;
24 [label="gini = 0.0\nsamples = 1\nvalue = [0, 1, 0, 0]\nclass = 2", fillcolor="#47e539"] ;
22 -> 24 ;
25 [label="gini = 0.0\nsamples = 2\nvalue = [0, 2, 0, 0]\nclass = 2", fillcolor="#47e539"] ;
5 -> 25 ;
26 [label="address_types_route <= 0.5\ngini = 0.541\nsamples = 14\nvalue = [0, 1, 8, 5]\nclass = 3", fillcolor="#bddef6"] ;
4 -> 26 ;
27 [label="YearMonth <= 201806.5\ngini = 0.486\nsamples = 12\nvalue = [0, 1, 8, 3]\nclass = 3", fillcolor="#91c9f1"] ;
26 -> 27 ;
28 [label="County_Cork <= 0.5\ngini = 0.32\nsamples = 10\nvalue = [0, 0, 8, 2]\nclass = 3", fillcolor="#6ab6ec"] ;
27 -> 28 ;
29 [label="gini = 0.0\nsamples = 7\nvalue = [0, 0, 7, 0]\nclass = 3", fillcolor="#399de5"] ;
28 -> 29 ;
30 [label="address_types_locality-political <= 0.5\ngini = 0.444\nsamples = 3\nvalue = [0, 0, 1, 2]\nclass = 4", fillcolor="#eb9cf2"] ;
28 -> 30 ;
31 [label="gini = 0.0\nsamples = 2\nvalue = [0, 0, 0, 2]\nclass = 4", fillcolor="#d739e5"] ;
30 -> 31 ;
32 [label="gini = 0.0\nsamples = 1\nvalue = [0, 0, 1, 0]\nclass = 3", fillcolor="#399de5"] ;
30 -> 32 ;
33 [label="County_Sligo <= 0.5\ngini = 0.5\nsamples = 2\nvalue = [0, 1, 0, 1]\nclass = 2", fillcolor="#ffffff"] ;
27 -> 33 ;
34 [label="gini = 0.0\nsamples = 1\nvalue = [0, 0, 0, 1]\nclass = 4", fillcolor="#d739e5"] ;
33 -> 34 ;
35 [label="gini = 0.0\nsamples = 1\nvalue = [0, 1, 0, 0]\nclass = 2", fillcolor="#47e539"] ;
33 -> 35 ;
36 [label="gini = 0.0\nsamples = 2\nvalue = [0, 0, 0, 2]\nclass = 4", fillcolor="#d739e5"] ;
26 -> 36 ;
37 [label="gini = 0.0\nsamples = 21\nvalue = [21, 0, 0, 0]\nclass = 1", fillcolor="#e58139"] ;
3 -> 37 ;
38 [label="PropertySizeDescription <= 3.5\ngini = 0.683\nsamples = 4834\nvalue = [123, 1513, 1606, 1592]\nclass = 3", fillcolor="#feffff"] ;
0 -> 38 [labeldistance=2.5, labelangle=-45, headlabel="False"] ;
39 [label="PropertySizeDescription <= 2.5\ngini = 0.564\nsamples = 3298\nvalue = [97, 1488, 1580, 133]\nclass = 3", fillcolor="#f5fafe"] ;
38 -> 39 ;
40 [label="VATExclusive <= 0.5\ngini = 0.32\nsamples = 1814\nvalue = [93, 1483, 141, 97]\nclass = 2", fillcolor="#6bea60"] ;
39 -> 40 ;
41 [label="County_Sligo <= 0.5\ngini = 0.015\nsamples = 1326\nvalue = [7, 1316, 1, 2]\nclass = 2", fillcolor="#48e53b"] ;
40 -> 41 ;
42 [label="address_types_establishment-lodging-point_of_interest <= 0.5\ngini = 0.011\nsamples = 1306\nvalue = [5, 1299, 0, 2]\nclass = 2", fillcolor="#48e53a"] ;
41 -> 42 ;
43 [label="NotFullMarketPrice <= 0.5\ngini = 0.009\nsamples = 1298\nvalue = [4, 1292, 0, 2]\nclass = 2", fillcolor="#48e53a"] ;
42 -> 43 ;
44 [label="address_types_subpremise <= 0.5\ngini = 0.007\nsamples = 1227\nvalue = [2, 1223, 0, 2]\nclass = 2", fillcolor="#48e53a"] ;
43 -> 44 ;
45 [label="County_Galway <= 0.5\ngini = 0.005\nsamples = 1208\nvalue = [2, 1205, 0, 1]\nclass = 2", fillcolor="#47e539"] ;
44 -> 45 ;
46 [label="County_Dublin <= 0.5\ngini = 0.002\nsamples = 1119\nvalue = [0, 1118, 0, 1]\nclass = 2", fillcolor="#47e539"] ;
45 -> 46 ;
47 [label="gini = 0.0\nsamples = 895\nvalue = [0, 895, 0, 0]\nclass = 2", fillcolor="#47e539"] ;
46 -> 47 ;
48 [label="gini = 0.009\nsamples = 224\nvalue = [0, 223, 0, 1]\nclass = 2", fillcolor="#48e53a"] ;
46 -> 48 ;
49 [label="address_types_neighborhood-political <= 0.5\ngini = 0.044\nsamples = 89\nvalue = [2, 87, 0, 0]\nclass = 2", fillcolor="#4be63e"] ;
45 -> 49 ;
50 [label="gini = 0.024\nsamples = 84\nvalue = [1, 83, 0, 0]\nclass = 2", fillcolor="#49e53b"] ;
49 -> 50 ;
51 [label="gini = 0.32\nsamples = 5\nvalue = [1, 4, 0, 0]\nclass = 2", fillcolor="#75ec6a"] ;
49 -> 51 ;
52 [label="YearMonth <= 201706.5\ngini = 0.1\nsamples = 19\nvalue = [0, 18, 0, 1]\nclass = 2", fillcolor="#51e644"] ;
44 -> 52 ;
53 [label="gini = 0.0\nsamples = 12\nvalue = [0, 12, 0, 0]\nclass = 2", fillcolor="#47e539"] ;
52 -> 53 ;
54 [label="YearMonth <= 201707.5\ngini = 0.245\nsamples = 7\nvalue = [0, 6, 0, 1]\nclass = 2", fillcolor="#66e95a"] ;
52 -> 54 ;
55 [label="gini = 0.0\nsamples = 1\nvalue = [0, 0, 0, 1]\nclass = 4", fillcolor="#d739e5"] ;
54 -> 55 ;
56 [label="gini = 0.0\nsamples = 6\nvalue = [0, 6, 0, 0]\nclass = 2", fillcolor="#47e539"] ;
54 -> 56 ;
57 [label="County_Meath <= 0.5\ngini = 0.055\nsamples = 71\nvalue = [2, 69, 0, 0]\nclass = 2", fillcolor="#4ce63f"] ;
43 -> 57 ;
58 [label="County_Tipperary <= 0.5\ngini = 0.029\nsamples = 68\nvalue = [1, 67, 0, 0]\nclass = 2", fillcolor="#4ae53c"] ;
57 -> 58 ;
59 [label="gini = 0.0\nsamples = 64\nvalue = [0, 64, 0, 0]\nclass = 2", fillcolor="#47e539"] ;
58 -> 59 ;
60 [label="address_types_locality-political <= 0.5\ngini = 0.375\nsamples = 4\nvalue = [1, 3, 0, 0]\nclass = 2", fillcolor="#84ee7b"] ;
58 -> 60 ;
61 [label="gini = 0.0\nsamples = 3\nvalue = [0, 3, 0, 0]\nclass = 2", fillcolor="#47e539"] ;
60 -> 61 ;
62 [label="gini = 0.0\nsamples = 1\nvalue = [1, 0, 0, 0]\nclass = 1", fillcolor="#e58139"] ;
60 -> 62 ;
63 [label="address_types_neighborhood-political <= 0.5\ngini = 0.444\nsamples = 3\nvalue = [1, 2, 0, 0]\nclass = 2", fillcolor="#a3f29c"] ;
57 -> 63 ;
64 [label="YearMonth <= 201609.5\ngini = 0.5\nsamples = 2\nvalue = [1, 1, 0, 0]\nclass = 1", fillcolor="#ffffff"] ;
63 -> 64 ;
65 [label="gini = 0.0\nsamples = 1\nvalue = [0, 1, 0, 0]\nclass = 2", fillcolor="#47e539"] ;
64 -> 65 ;
66 [label="gini = 0.0\nsamples = 1\nvalue = [1, 0, 0, 0]\nclass = 1", fillcolor="#e58139"] ;
64 -> 66 ;
67 [label="gini = 0.0\nsamples = 1\nvalue = [0, 1, 0, 0]\nclass = 2", fillcolor="#47e539"] ;
63 -> 67 ;
68 [label="County_Galway <= 0.5\ngini = 0.219\nsamples = 8\nvalue = [1, 7, 0, 0]\nclass = 2", fillcolor="#61e955"] ;
42 -> 68 ;
69 [label="gini = 0.0\nsamples = 6\nvalue = [0, 6, 0, 0]\nclass = 2", fillcolor="#47e539"] ;
68 -> 69 ;
70 [label="YearMonth <= 201504.5\ngini = 0.5\nsamples = 2\nvalue = [1, 1, 0, 0]\nclass = 1", fillcolor="#ffffff"] ;
68 -> 70 ;
71 [label="gini = 0.0\nsamples = 1\nvalue = [0, 1, 0, 0]\nclass = 2", fillcolor="#47e539"] ;
70 -> 71 ;
72 [label="gini = 0.0\nsamples = 1\nvalue = [1, 0, 0, 0]\nclass = 1", fillcolor="#e58139"] ;
70 -> 72 ;
73 [label="address_types_subpremise <= 0.5\ngini = 0.265\nsamples = 20\nvalue = [2, 17, 1, 0]\nclass = 2", fillcolor="#66e95a"] ;
41 -> 73 ;
74 [label="address_types_locality-political <= 0.5\ngini = 0.194\nsamples = 19\nvalue = [1, 17, 1, 0]\nclass = 2", fillcolor="#5be84f"] ;
73 -> 74 ;
75 [label="YearMonth <= 201803.5\ngini = 0.105\nsamples = 18\nvalue = [0, 17, 1, 0]\nclass = 2", fillcolor="#52e745"] ;
74 -> 75 ;
76 [label="gini = 0.0\nsamples = 14\nvalue = [0, 14, 0, 0]\nclass = 2", fillcolor="#47e539"] ;
75 -> 76 ;
77 [label="YearMonth <= 201805.5\ngini = 0.375\nsamples = 4\nvalue = [0, 3, 1, 0]\nclass = 2", fillcolor="#84ee7b"] ;
75 -> 77 ;
78 [label="gini = 0.0\nsamples = 1\nvalue = [0, 0, 1, 0]\nclass = 3", fillcolor="#399de5"] ;
77 -> 78 ;
79 [label="gini = 0.0\nsamples = 3\nvalue = [0, 3, 0, 0]\nclass = 2", fillcolor="#47e539"] ;
77 -> 79 ;
80 [label="gini = 0.0\nsamples = 1\nvalue = [1, 0, 0, 0]\nclass = 1", fillcolor="#e58139"] ;
74 -> 80 ;
81 [label="gini = 0.0\nsamples = 1\nvalue = [1, 0, 0, 0]\nclass = 1", fillcolor="#e58139"] ;
73 -> 81 ;
82 [label="County_Dublin <= 0.5\ngini = 0.732\nsamples = 488\nvalue = [86, 167, 140, 95]\nclass = 2", fillcolor="#f1fdf0"] ;
40 -> 82 ;
83 [label="YearMonth <= 201901.5\ngini = 0.683\nsamples = 298\nvalue = [77, 132, 65, 24]\nclass = 2", fillcolor="#d1f9ce"] ;
82 -> 83 ;
84 [label="YearMonth <= 201701.5\ngini = 0.702\nsamples = 274\nvalue = [77, 108, 65, 24]\nclass = 2", fillcolor="#e2fbe0"] ;
83 -> 84 ;
85 [label="YearMonth <= 201205.5\ngini = 0.666\nsamples = 183\nvalue = [66, 75, 34, 8]\nclass = 2", fillcolor="#f1fdf0"] ;
84 -> 85 ;
86 [label="County_Kildare <= 0.5\ngini = 0.506\nsamples = 50\nvalue = [9, 33, 8, 0]\nclass = 2", fillcolor="#93f08b"] ;
85 -> 86 ;
87 [label="address_types_premise <= 0.5\ngini = 0.444\nsamples = 42\nvalue = [8, 30, 4, 0]\nclass = 2", fillcolor="#88ee7f"] ;
86 -> 87 ;
88 [label="gini = 0.397\nsamples = 37\nvalue = [5, 28, 4, 0]\nclass = 2", fillcolor="#7bec71"] ;
87 -> 88 ;
89 [label="gini = 0.48\nsamples = 5\nvalue = [3, 2, 0, 0]\nclass = 1", fillcolor="#f6d5bd"] ;
87 -> 89 ;
90 [label="YearMonth <= 201056.0\ngini = 0.594\nsamples = 8\nvalue = [1, 3, 4, 0]\nclass = 3", fillcolor="#d7ebfa"] ;
86 -> 90 ;
91 [label="gini = 0.375\nsamples = 4\nvalue = [0, 3, 1, 0]\nclass = 2", fillcolor="#84ee7b"] ;
90 -> 91 ;
92 [label="gini = 0.375\nsamples = 4\nvalue = [1, 0, 3, 0]\nclass = 3", fillcolor="#7bbeee"] ;
90 -> 92 ;
93 [label="County_Kildare <= 0.5\ngini = 0.675\nsamples = 133\nvalue = [57, 42, 26, 8]\nclass = 1", fillcolor="#fbeade"] ;
85 -> 93 ;
94 [label="address_types_premise <= 0.5\ngini = 0.65\nsamples = 117\nvalue = [53, 40, 19, 5]\nclass = 1", fillcolor="#fbeade"] ;
93 -> 94 ;
95 [label="gini = 0.654\nsamples = 110\nvalue = [47, 40, 19, 4]\nclass = 1", fillcolor="#fcf2eb"] ;
94 -> 95 ;
96 [label="gini = 0.245\nsamples = 7\nvalue = [6, 0, 0, 1]\nclass = 1", fillcolor="#e9965a"] ;
94 -> 96 ;
97 [label="YearMonth <= 201553.5\ngini = 0.695\nsamples = 16\nvalue = [4, 2, 7, 3]\nclass = 3", fillcolor="#cee6f8"] ;
93 -> 97 ;
98 [label="gini = 0.54\nsamples = 10\nvalue = [3, 0, 6, 1]\nclass = 3", fillcolor="#aad5f4"] ;
97 -> 98 ;
99 [label="gini = 0.722\nsamples = 6\nvalue = [1, 2, 1, 2]\nclass = 2", fillcolor="#ffffff"] ;
97 -> 99 ;
100 [label="County_Wicklow <= 0.5\ngini = 0.707\nsamples = 91\nvalue = [11, 33, 31, 16]\nclass = 2", fillcolor="#f9fef8"] ;
84 -> 100 ;
101 [label="County_Kildare <= 0.5\ngini = 0.699\nsamples = 87\nvalue = [11, 33, 30, 13]\nclass = 2", fillcolor="#f5fef5"] ;
100 -> 101 ;
102 [label="County_Meath <= 0.5\ngini = 0.697\nsamples = 78\nvalue = [11, 32, 24, 11]\nclass = 2", fillcolor="#e4fbe2"] ;
101 -> 102 ;
103 [label="gini = 0.681\nsamples = 63\nvalue = [11, 29, 16, 7]\nclass = 2", fillcolor="#ccf8c8"] ;
102 -> 103 ;
104 [label="gini = 0.604\nsamples = 15\nvalue = [0, 3, 8, 4]\nclass = 3", fillcolor="#b7dbf6"] ;
102 -> 104 ;
105 [label="address_types_street_address <= 0.5\ngini = 0.494\nsamples = 9\nvalue = [0, 1, 6, 2]\nclass = 3", fillcolor="#8ec7f0"] ;
101 -> 105 ;
106 [label="gini = 0.0\nsamples = 5\nvalue = [0, 0, 5, 0]\nclass = 3", fillcolor="#399de5"] ;
105 -> 106 ;
107 [label="gini = 0.625\nsamples = 4\nvalue = [0, 1, 1, 2]\nclass = 4", fillcolor="#f2bdf6"] ;
105 -> 107 ;
108 [label="YearMonth <= 201759.0\ngini = 0.375\nsamples = 4\nvalue = [0, 0, 1, 3]\nclass = 4", fillcolor="#e47bee"] ;
100 -> 108 ;
109 [label="gini = 0.0\nsamples = 2\nvalue = [0, 0, 0, 2]\nclass = 4", fillcolor="#d739e5"] ;
108 -> 109 ;
110 [label="YearMonth <= 201808.5\ngini = 0.5\nsamples = 2\nvalue = [0, 0, 1, 1]\nclass = 3", fillcolor="#ffffff"] ;
108 -> 110 ;
111 [label="gini = 0.0\nsamples = 1\nvalue = [0, 0, 1, 0]\nclass = 3", fillcolor="#399de5"] ;
110 -> 111 ;
112 [label="gini = 0.0\nsamples = 1\nvalue = [0, 0, 0, 1]\nclass = 4", fillcolor="#d739e5"] ;
110 -> 112 ;
113 [label="gini = 0.0\nsamples = 24\nvalue = [0, 24, 0, 0]\nclass = 2", fillcolor="#47e539"] ;
83 -> 113 ;
114 [label="YearMonth <= 201601.5\ngini = 0.668\nsamples = 190\nvalue = [9, 35, 75, 71]\nclass = 3", fillcolor="#f8fcfe"] ;
82 -> 114 ;
115 [label="YearMonth <= 201006.0\ngini = 0.689\nsamples = 70\nvalue = [8, 24, 28, 10]\nclass = 3", fillcolor="#eef6fd"] ;
114 -> 115 ;
116 [label="gini = 0.0\nsamples = 3\nvalue = [0, 3, 0, 0]\nclass = 2", fillcolor="#47e539"] ;
115 -> 116 ;
117 [label="address_types_postal_town <= 0.5\ngini = 0.691\nsamples = 67\nvalue = [8, 21, 28, 10]\nclass = 3", fillcolor="#e1f0fb"] ;
115 -> 117 ;
118 [label="address_types_establishment-lodging-point_of_interest <= 0.5\ngini = 0.681\nsamples = 64\nvalue = [6, 21, 27, 10]\nclass = 3", fillcolor="#e3f1fb"] ;
117 -> 118 ;
119 [label="address_types_premise <= 0.5\ngini = 0.676\nsamples = 63\nvalue = [6, 21, 27, 9]\nclass = 3", fillcolor="#e3f1fb"] ;
118 -> 119 ;
120 [label="gini = 0.671\nsamples = 54\nvalue = [5, 20, 22, 7]\nclass = 3", fillcolor="#f3f9fd"] ;
119 -> 120 ;
121 [label="gini = 0.617\nsamples = 9\nvalue = [1, 1, 5, 2]\nclass = 3", fillcolor="#aad5f4"] ;
119 -> 121 ;
122 [label="gini = 0.0\nsamples = 1\nvalue = [0, 0, 0, 1]\nclass = 4", fillcolor="#d739e5"] ;
118 -> 122 ;
123 [label="YearMonth <= 201455.0\ngini = 0.444\nsamples = 3\nvalue = [2, 0, 1, 0]\nclass = 1", fillcolor="#f2c09c"] ;
117 -> 123 ;
124 [label="gini = 0.0\nsamples = 1\nvalue = [0, 0, 1, 0]\nclass = 3", fillcolor="#399de5"] ;
123 -> 124 ;
125 [label="gini = 0.0\nsamples = 2\nvalue = [2, 0, 0, 0]\nclass = 1", fillcolor="#e58139"] ;
123 -> 125 ;
126 [label="YearMonth <= 201862.0\ngini = 0.58\nsamples = 120\nvalue = [1, 11, 47, 61]\nclass = 4", fillcolor="#f7d9fa"] ;
114 -> 126 ;
127 [label="YearMonth <= 201756.5\ngini = 0.562\nsamples = 117\nvalue = [1, 8, 47, 61]\nclass = 4", fillcolor="#f7d7fa"] ;
126 -> 127 ;
128 [label="YearMonth <= 201607.5\ngini = 0.583\nsamples = 72\nvalue = [1, 6, 35, 30]\nclass = 3", fillcolor="#e7f3fc"] ;
127 -> 128 ;
129 [label="YearMonth <= 201606.5\ngini = 0.46\nsamples = 10\nvalue = [0, 1, 2, 7]\nclass = 4", fillcolor="#e683ef"] ;
128 -> 129 ;
130 [label="gini = 0.375\nsamples = 8\nvalue = [0, 0, 2, 6]\nclass = 4", fillcolor="#e47bee"] ;
129 -> 130 ;
131 [label="gini = 0.5\nsamples = 2\nvalue = [0, 1, 0, 1]\nclass = 2", fillcolor="#ffffff"] ;
129 -> 131 ;
132 [label="address_types_neighborhood-political <= 0.5\ngini = 0.572\nsamples = 62\nvalue = [1, 5, 33, 23]\nclass = 3", fillcolor="#cce6f8"] ;
128 -> 132 ;
133 [label="gini = 0.565\nsamples = 59\nvalue = [1, 5, 33, 20]\nclass = 3", fillcolor="#bddef6"] ;
132 -> 133 ;
134 [label="gini = 0.0\nsamples = 3\nvalue = [0, 0, 0, 3]\nclass = 4", fillcolor="#d739e5"] ;
132 -> 134 ;
135 [label="YearMonth <= 201810.5\ngini = 0.452\nsamples = 45\nvalue = [0, 2, 12, 31]\nclass = 4", fillcolor="#e88df0"] ;
127 -> 135 ;
136 [label="address_types_street_address <= 0.5\ngini = 0.41\nsamples = 38\nvalue = [0, 2, 8, 28]\nclass = 4", fillcolor="#e47bee"] ;
135 -> 136 ;
137 [label="gini = 0.277\nsamples = 19\nvalue = [0, 1, 2, 16]\nclass = 4", fillcolor="#de5cea"] ;
136 -> 137 ;
138 [label="gini = 0.499\nsamples = 19\nvalue = [0, 1, 6, 12]\nclass = 4", fillcolor="#eda4f3"] ;
136 -> 138 ;
139 [label="address_types_route <= 0.5\ngini = 0.49\nsamples = 7\nvalue = [0, 0, 4, 3]\nclass = 3", fillcolor="#cee6f8"] ;
135 -> 139 ;
140 [label="gini = 0.444\nsamples = 6\nvalue = [0, 0, 4, 2]\nclass = 3", fillcolor="#9ccef2"] ;
139 -> 140 ;
141 [label="gini = 0.0\nsamples = 1\nvalue = [0, 0, 0, 1]\nclass = 4", fillcolor="#d739e5"] ;
139 -> 141 ;
142 [label="gini = 0.0\nsamples = 3\nvalue = [0, 3, 0, 0]\nclass = 2", fillcolor="#47e539"] ;
126 -> 142 ;
143 [label="VATExclusive <= 0.5\ngini = 0.059\nsamples = 1484\nvalue = [4, 5, 1439, 36]\nclass = 3", fillcolor="#3fa0e6"] ;
39 -> 143 ;
144 [label="gini = 0.0\nsamples = 1277\nvalue = [0, 0, 1277, 0]\nclass = 3", fillcolor="#399de5"] ;
143 -> 144 ;
145 [label="YearMonth <= 201810.0\ngini = 0.356\nsamples = 207\nvalue = [4, 5, 162, 36]\nclass = 3", fillcolor="#6db7ec"] ;
143 -> 145 ;
146 [label="County_Westmeath <= 0.5\ngini = 0.514\nsamples = 54\nvalue = [4, 5, 9, 36]\nclass = 4", fillcolor="#e788ef"] ;
145 -> 146 ;
147 [label="County_Mayo <= 0.5\ngini = 0.482\nsamples = 52\nvalue = [3, 4, 9, 36]\nclass = 4", fillcolor="#e683ef"] ;
146 -> 147 ;
148 [label="County_Galway <= 0.5\ngini = 0.463\nsamples = 51\nvalue = [2, 4, 9, 36]\nclass = 4", fillcolor="#e580ee"] ;
147 -> 148 ;
149 [label="address_types_establishment-general_contractor-point_of_interest <= 0.5\ngini = 0.442\nsamples = 50\nvalue = [1, 4, 9, 36]\nclass = 4", fillcolor="#e57dee"] ;
148 -> 149 ;
150 [label="County_Laois <= 0.5\ngini = 0.422\nsamples = 49\nvalue = [1, 3, 9, 36]\nclass = 4", fillcolor="#e479ed"] ;
149 -> 150 ;
151 [label="gini = 0.4\nsamples = 48\nvalue = [1, 2, 9, 36]\nclass = 4", fillcolor="#e376ed"] ;
150 -> 151 ;
152 [label="gini = 0.0\nsamples = 1\nvalue = [0, 1, 0, 0]\nclass = 2", fillcolor="#47e539"] ;
150 -> 152 ;
153 [label="gini = 0.0\nsamples = 1\nvalue = [0, 1, 0, 0]\nclass = 2", fillcolor="#47e539"] ;
149 -> 153 ;
154 [label="gini = 0.0\nsamples = 1\nvalue = [1, 0, 0, 0]\nclass = 1", fillcolor="#e58139"] ;
148 -> 154 ;
155 [label="gini = 0.0\nsamples = 1\nvalue = [1, 0, 0, 0]\nclass = 1", fillcolor="#e58139"] ;
147 -> 155 ;
156 [label="YearMonth <= 201706.0\ngini = 0.5\nsamples = 2\nvalue = [1, 1, 0, 0]\nclass = 1", fillcolor="#ffffff"] ;
146 -> 156 ;
157 [label="gini = 0.0\nsamples = 1\nvalue = [1, 0, 0, 0]\nclass = 1", fillcolor="#e58139"] ;
156 -> 157 ;
158 [label="gini = 0.0\nsamples = 1\nvalue = [0, 1, 0, 0]\nclass = 2", fillcolor="#47e539"] ;
156 -> 158 ;
159 [label="gini = 0.0\nsamples = 153\nvalue = [0, 0, 153, 0]\nclass = 3", fillcolor="#399de5"] ;
145 -> 159 ;
160 [label="VATExclusive <= 0.5\ngini = 0.097\nsamples = 1536\nvalue = [26, 25, 26, 1459]\nclass = 4", fillcolor="#d943e6"] ;
38 -> 160 ;
161 [label="gini = 0.0\nsamples = 1248\nvalue = [0, 0, 0, 1248]\nclass = 4", fillcolor="#d739e5"] ;
160 -> 161 ;
162 [label="YearMonth <= 201611.5\ngini = 0.439\nsamples = 288\nvalue = [26, 25, 26, 211]\nclass = 4", fillcolor="#e373ed"] ;
160 -> 162 ;
163 [label="County_Dublin <= 0.5\ngini = 0.749\nsamples = 99\nvalue = [26, 25, 26, 22]\nclass = 1", fillcolor="#ffffff"] ;
162 -> 163 ;
164 [label="YearMonth <= 201005.5\ngini = 0.728\nsamples = 81\nvalue = [25, 24, 22, 10]\nclass = 1", fillcolor="#fffdfc"] ;
163 -> 164 ;
165 [label="YearMonth <= 201003.0\ngini = 0.568\nsamples = 9\nvalue = [0, 1, 3, 5]\nclass = 4", fillcolor="#f2bdf6"] ;
164 -> 165 ;
166 [label="address_types_political-sublocality-sublocality_level_1 <= 0.5\ngini = 0.56\nsamples = 5\nvalue = [0, 1, 3, 1]\nclass = 3", fillcolor="#9ccef2"] ;
165 -> 166 ;
167 [label="County_Kildare <= 0.5\ngini = 0.375\nsamples = 4\nvalue = [0, 1, 3, 0]\nclass = 3", fillcolor="#7bbeee"] ;
166 -> 167 ;
168 [label="gini = 0.0\nsamples = 3\nvalue = [0, 0, 3, 0]\nclass = 3", fillcolor="#399de5"] ;
167 -> 168 ;
169 [label="gini = 0.0\nsamples = 1\nvalue = [0, 1, 0, 0]\nclass = 2", fillcolor="#47e539"] ;
167 -> 169 ;
170 [label="gini = 0.0\nsamples = 1\nvalue = [0, 0, 0, 1]\nclass = 4", fillcolor="#d739e5"] ;
166 -> 170 ;
171 [label="gini = 0.0\nsamples = 4\nvalue = [0, 0, 0, 4]\nclass = 4", fillcolor="#d739e5"] ;
165 -> 171 ;
172 [label="YearMonth <= 201010.5\ngini = 0.703\nsamples = 72\nvalue = [25, 23, 19, 5]\nclass = 1", fillcolor="#fefaf7"] ;
164 -> 172 ;
173 [label="County_Cork <= 0.5\ngini = 0.406\nsamples = 8\nvalue = [1, 6, 1, 0]\nclass = 2", fillcolor="#7cec72"] ;
172 -> 173 ;
174 [label="County_Cavan <= 0.5\ngini = 0.278\nsamples = 6\nvalue = [1, 5, 0, 0]\nclass = 2", fillcolor="#6cea61"] ;
173 -> 174 ;
175 [label="gini = 0.0\nsamples = 4\nvalue = [0, 4, 0, 0]\nclass = 2", fillcolor="#47e539"] ;
174 -> 175 ;
176 [label="gini = 0.5\nsamples = 2\nvalue = [1, 1, 0, 0]\nclass = 1", fillcolor="#ffffff"] ;
174 -> 176 ;
177 [label="YearMonth <= 201006.5\ngini = 0.5\nsamples = 2\nvalue = [0, 1, 1, 0]\nclass = 2", fillcolor="#ffffff"] ;
173 -> 177 ;
178 [label="gini = 0.0\nsamples = 1\nvalue = [0, 0, 1, 0]\nclass = 3", fillcolor="#399de5"] ;
177 -> 178 ;
179 [label="gini = 0.0\nsamples = 1\nvalue = [0, 1, 0, 0]\nclass = 2", fillcolor="#47e539"] ;
177 -> 179 ;
180 [label="County_Kildare <= 0.5\ngini = 0.704\nsamples = 64\nvalue = [24, 17, 18, 5]\nclass = 1", fillcolor="#fcefe5"] ;
172 -> 180 ;
181 [label="County_Cavan <= 0.5\ngini = 0.678\nsamples = 60\nvalue = [24, 17, 17, 2]\nclass = 1", fillcolor="#fbeadf"] ;
180 -> 181 ;
182 [label="YearMonth <= 201111.5\ngini = 0.688\nsamples = 54\nvalue = [19, 16, 17, 2]\nclass = 1", fillcolor="#fef8f4"] ;
181 -> 182 ;
183 [label="gini = 0.545\nsamples = 11\nvalue = [1, 2, 7, 1]\nclass = 3", fillcolor="#91c9f1"] ;
182 -> 183 ;
184 [label="gini = 0.664\nsamples = 43\nvalue = [18, 14, 10, 1]\nclass = 1", fillcolor="#fbeee4"] ;
182 -> 184 ;
185 [label="YearMonth <= 201508.0\ngini = 0.278\nsamples = 6\nvalue = [5, 1, 0, 0]\nclass = 1", fillcolor="#ea9a61"] ;
181 -> 185 ;
186 [label="gini = 0.0\nsamples = 5\nvalue = [5, 0, 0, 0]\nclass = 1", fillcolor="#e58139"] ;
185 -> 186 ;
187 [label="gini = 0.0\nsamples = 1\nvalue = [0, 1, 0, 0]\nclass = 2", fillcolor="#47e539"] ;
185 -> 187 ;
188 [label="YearMonth <= 201356.5\ngini = 0.375\nsamples = 4\nvalue = [0, 0, 1, 3]\nclass = 4", fillcolor="#e47bee"] ;
180 -> 188 ;
189 [label="YearMonth <= 201158.5\ngini = 0.5\nsamples = 2\nvalue = [0, 0, 1, 1]\nclass = 3", fillcolor="#ffffff"] ;
188 -> 189 ;
190 [label="gini = 0.0\nsamples = 1\nvalue = [0, 0, 0, 1]\nclass = 4", fillcolor="#d739e5"] ;
189 -> 190 ;
191 [label="gini = 0.0\nsamples = 1\nvalue = [0, 0, 1, 0]\nclass = 3", fillcolor="#399de5"] ;
189 -> 191 ;
192 [label="gini = 0.0\nsamples = 2\nvalue = [0, 0, 0, 2]\nclass = 4", fillcolor="#d739e5"] ;
188 -> 192 ;
193 [label="YearMonth <= 201458.0\ngini = 0.5\nsamples = 18\nvalue = [1, 1, 4, 12]\nclass = 4", fillcolor="#e88ef0"] ;
163 -> 193 ;
194 [label="YearMonth <= 201409.0\ngini = 0.604\nsamples = 13\nvalue = [1, 1, 4, 7]\nclass = 4", fillcolor="#f2bdf6"] ;
193 -> 194 ;
195 [label="YearMonth <= 201106.0\ngini = 0.545\nsamples = 11\nvalue = [1, 1, 2, 7]\nclass = 4", fillcolor="#e991f1"] ;
194 -> 195 ;
196 [label="gini = 0.0\nsamples = 4\nvalue = [0, 0, 0, 4]\nclass = 4", fillcolor="#d739e5"] ;
195 -> 196 ;
197 [label="YearMonth <= 201308.0\ngini = 0.694\nsamples = 7\nvalue = [1, 1, 2, 3]\nclass = 4", fillcolor="#f7d7fa"] ;
195 -> 197 ;
198 [label="YearMonth <= 201205.0\ngini = 0.625\nsamples = 4\nvalue = [1, 1, 2, 0]\nclass = 3", fillcolor="#bddef6"] ;
197 -> 198 ;
199 [label="gini = 0.0\nsamples = 1\nvalue = [0, 1, 0, 0]\nclass = 2", fillcolor="#47e539"] ;
198 -> 199 ;
200 [label="gini = 0.444\nsamples = 3\nvalue = [1, 0, 2, 0]\nclass = 3", fillcolor="#9ccef2"] ;
198 -> 200 ;
201 [label="gini = 0.0\nsamples = 3\nvalue = [0, 0, 0, 3]\nclass = 4", fillcolor="#d739e5"] ;
197 -> 201 ;
202 [label="gini = 0.0\nsamples = 2\nvalue = [0, 0, 2, 0]\nclass = 3", fillcolor="#399de5"] ;
194 -> 202 ;
203 [label="gini = 0.0\nsamples = 5\nvalue = [0, 0, 0, 5]\nclass = 4", fillcolor="#d739e5"] ;
193 -> 203 ;
204 [label="gini = 0.0\nsamples = 189\nvalue = [0, 0, 0, 189]\nclass = 4", fillcolor="#d739e5"] ;
162 -> 204 ;
}